<?xml version="1.0"?>
<opencv_storage>
<cascade>
  <stageType>BOOST</stageType>
  <featureType>HAAR</featureType>
  <height>24</height>
  <width>36</width>
  <stageParams>
    <boostType>GAB</boostType>
    <minHitRate>9.9500000476837158e-01</minHitRate>
    <maxFalseAlarm>5.0000000000000000e-01</maxFalseAlarm>
    <weightTrimRate>9.4999998807907104e-01</weightTrimRate>
    <maxDepth>1</maxDepth>
    <maxWeakCount>100</maxWeakCount></stageParams>
  <featureParams>
    <maxCatCount>0</maxCatCount>
    <featSize>1</featSize>
    <mode>BASIC</mode></featureParams>
  <stageNum>11</stageNum>
  <stages>
    <!-- stage 0 -->
    <_>
      <maxWeakCount>2</maxWeakCount>
      <stageThreshold>-2.5688004493713379e-01</stageThreshold>
      <weakClassifiers>
        <_>
          <internalNodes>
            0 -1 11 1.5304680168628693e-01</internalNodes>
          <leafValues>
            -9.6923077106475830e-01 8.6274510622024536e-01</leafValues></_>
        <_>
          <internalNodes>
            0 -1 18 -1.5988935530185699e-01</internalNodes>
          <leafValues>
            7.1235072612762451e-01 -9.3071699142456055e-01</leafValues></_></weakClassifiers></_>
    <!-- stage 1 -->
    <_>
      <maxWeakCount>3</maxWeakCount>
      <stageThreshold>-1.2243118286132813e+00</stageThreshold>
      <weakClassifiers>
        <_>
          <internalNodes>
            0 -1 0 -2.6791030168533325e-01</internalNodes>
          <leafValues>
            6.2000000476837158e-01 -8.6259543895721436e-01</leafValues></_>
        <_>
          <internalNodes>
            0 -1 3 3.2492922618985176e-03</internalNodes>
          <leafValues>
            -8.5014516115188599e-01 5.4381871223449707e-01</leafValues></_>
        <_>
          <internalNodes>
            0 -1 34 3.0650459229946136e-03</internalNodes>
          <leafValues>
            -9.0553510189056396e-01 5.1112920045852661e-01</leafValues></_></weakClassifiers></_>
    <!-- stage 2 -->
    <_>
      <maxWeakCount>2</maxWeakCount>
      <stageThreshold>-3.8808616995811462e-01</stageThreshold>
      <weakClassifiers>
        <_>
          <internalNodes>
            0 -1 20 3.2602658867835999e-01</internalNodes>
          <leafValues>
            -7.4647885560989380e-01 6.1538463830947876e-01</leafValues></_>
        <_>
          <internalNodes>
            0 -1 25 1.3490188866853714e-03</internalNodes>
          <leafValues>
            -9.4448101520538330e-01 3.5839268565177917e-01</leafValues></_></weakClassifiers></_>
    <!-- stage 3 -->
    <_>
      <maxWeakCount>4</maxWeakCount>
      <stageThreshold>-6.1013644933700562e-01</stageThreshold>
      <weakClassifiers>
        <_>
          <internalNodes>
            0 -1 22 -2.6789117604494095e-02</internalNodes>
          <leafValues>
            7.7419352531433105e-01 -7.0666664838790894e-01</leafValues></_>
        <_>
          <internalNodes>
            0 -1 1 -2.6808735728263855e-01</internalNodes>
          <leafValues>
            5.3606241941452026e-01 -7.6358664035797119e-01</leafValues></_>
        <_>
          <internalNodes>
            0 -1 32 -2.6833449737750925e-05</internalNodes>
          <leafValues>
            4.3773719668388367e-01 -9.3633824586868286e-01</leafValues></_>
        <_>
          <internalNodes>
            0 -1 21 4.2436797171831131e-02</internalNodes>
          <leafValues>
            -7.3191720247268677e-01 4.9680599570274353e-01</leafValues></_></weakClassifiers></_>
    <!-- stage 4 -->
    <_>
      <maxWeakCount>4</maxWeakCount>
      <stageThreshold>-9.1944509744644165e-01</stageThreshold>
      <weakClassifiers>
        <_>
          <internalNodes>
            0 -1 19 -2.6112291961908340e-02</internalNodes>
          <leafValues>
            7.2222220897674561e-01 -7.4482756853103638e-01</leafValues></_>
        <_>
          <internalNodes>
            0 -1 26 9.4219297170639038e-03</internalNodes>
          <leafValues>
            -8.2361567020416260e-01 3.7160012125968933e-01</leafValues></_>
        <_>
          <internalNodes>
            0 -1 7 2.5583172828191891e-05</internalNodes>
          <leafValues>
            -8.3720016479492188e-01 3.9777591824531555e-01</leafValues></_>
        <_>
          <internalNodes>
            0 -1 2 -1.3989650644361973e-02</internalNodes>
          <leafValues>
            3.2990077137947083e-01 -9.4399356842041016e-01</leafValues></_></weakClassifiers></_>
    <!-- stage 5 -->
    <_>
      <maxWeakCount>4</maxWeakCount>
      <stageThreshold>-8.4643226861953735e-01</stageThreshold>
      <weakClassifiers>
        <_>
          <internalNodes>
            0 -1 12 3.3447748422622681e-01</internalNodes>
          <leafValues>
            -7.0648461580276489e-01 6.2318837642669678e-01</leafValues></_>
        <_>
          <internalNodes>
            0 -1 9 2.2796448320150375e-04</internalNodes>
          <leafValues>
            2.9402408003807068e-01 -9.1855359077453613e-01</leafValues></_>
        <_>
          <internalNodes>
            0 -1 5 -1.1635469272732735e-03</internalNodes>
          <leafValues>
            -9.8898029327392578e-01 3.4773373603820801e-01</leafValues></_>
        <_>
          <internalNodes>
            0 -1 15 1.3962445082142949e-03</internalNodes>
          <leafValues>
            -7.6416915655136108e-01 4.3087220191955566e-01</leafValues></_></weakClassifiers></_>
    <!-- stage 6 -->
    <_>
      <maxWeakCount>3</maxWeakCount>
      <stageThreshold>-1.4475857019424438e+00</stageThreshold>
      <weakClassifiers>
        <_>
          <internalNodes>
            0 -1 4 2.3446616251021624e-04</internalNodes>
          <leafValues>
            8.1395350396633148e-02 -9.3684208393096924e-01</leafValues></_>
        <_>
          <internalNodes>
            0 -1 31 -3.0730745493201539e-05</internalNodes>
          <leafValues>
            2.3000481724739075e-01 -8.6513125896453857e-01</leafValues></_>
        <_>
          <internalNodes>
            0 -1 29 8.2449812907725573e-04</internalNodes>
          <leafValues>
            -8.7112879753112793e-01 3.5438761115074158e-01</leafValues></_></weakClassifiers></_>
    <!-- stage 7 -->
    <_>
      <maxWeakCount>4</maxWeakCount>
      <stageThreshold>-5.5635786056518555e-01</stageThreshold>
      <weakClassifiers>
        <_>
          <internalNodes>
            0 -1 16 4.0172398090362549e-01</internalNodes>
          <leafValues>
            -6.8135595321655273e-01 5.5223882198333740e-01</leafValues></_>
        <_>
          <internalNodes>
            0 -1 14 1.5236822946462780e-04</internalNodes>
          <leafValues>
            2.9419267177581787e-01 -9.3000406026840210e-01</leafValues></_>
        <_>
          <internalNodes>
            0 -1 17 -4.5392354950308800e-03</internalNodes>
          <leafValues>
            6.9120472669601440e-01 -5.3778749704360962e-01</leafValues></_>
        <_>
          <internalNodes>
            0 -1 28 2.5024439673870802e-04</internalNodes>
          <leafValues>
            4.0824449062347412e-01 -8.6039936542510986e-01</leafValues></_></weakClassifiers></_>
    <!-- stage 8 -->
    <_>
      <maxWeakCount>2</maxWeakCount>
      <stageThreshold>-6.1025965213775635e-01</stageThreshold>
      <weakClassifiers>
        <_>
          <internalNodes>
            0 -1 13 8.3443120121955872e-02</internalNodes>
          <leafValues>
            -6.9892472028732300e-01 3.7349396944046021e-01</leafValues></_>
        <_>
          <internalNodes>
            0 -1 8 2.0214976393617690e-04</internalNodes>
          <leafValues>
            2.6462939381599426e-01 -9.8375362157821655e-01</leafValues></_></weakClassifiers></_>
    <!-- stage 9 -->
    <_>
      <maxWeakCount>4</maxWeakCount>
      <stageThreshold>-1.0574502944946289e+00</stageThreshold>
      <weakClassifiers>
        <_>
          <internalNodes>
            0 -1 10 -5.7509308680891991e-03</internalNodes>
          <leafValues>
            5.6250000000000000e-01 -6.7114096879959106e-01</leafValues></_>
        <_>
          <internalNodes>
            0 -1 6 -7.9560297308489680e-05</internalNodes>
          <leafValues>
            -1. 2.4163369834423065e-01</leafValues></_>
        <_>
          <internalNodes>
            0 -1 24 -5.4930293117649853e-05</internalNodes>
          <leafValues>
            2.5464099645614624e-01 -8.7535226345062256e-01</leafValues></_>
        <_>
          <internalNodes>
            0 -1 27 -2.6705773052526638e-05</internalNodes>
          <leafValues>
            3.1907847523689270e-01 -8.8258403539657593e-01</leafValues></_></weakClassifiers></_>
    <!-- stage 10 -->
    <_>
      <maxWeakCount>3</maxWeakCount>
      <stageThreshold>-1.1965856552124023e+00</stageThreshold>
      <weakClassifiers>
        <_>
          <internalNodes>
            0 -1 23 -3.5753515549004078e-03</internalNodes>
          <leafValues>
            4.1666665673255920e-01 -6.6896551847457886e-01</leafValues></_>
        <_>
          <internalNodes>
            0 -1 33 2.9709664886468090e-05</internalNodes>
          <leafValues>
            -8.5626059770584106e-01 3.1319406628608704e-01</leafValues></_>
        <_>
          <internalNodes>
            0 -1 30 6.0739588661817834e-05</internalNodes>
          <leafValues>
            3.2864052057266235e-01 -9.1300648450851440e-01</leafValues></_></weakClassifiers></_></stages>
  <features>
    <_>
      <rects>
        <_>
          0 5 33 12 -1.</_>
        <_>
          11 5 11 12 3.</_></rects>
      <tilted>0</tilted></_>
    <_>
      <rects>
        <_>
          0 5 36 11 -1.</_>
        <_>
          12 5 12 11 3.</_></rects>
      <tilted>0</tilted></_>
    <_>
      <rects>
        <_>
          0 12 16 4 -1.</_>
        <_>
          8 12 8 4 2.</_></rects>
      <tilted>0</tilted></_>
    <_>
      <rects>
        <_>
          2 0 34 2 -1.</_>
        <_>
          2 1 34 1 2.</_></rects>
      <tilted>0</tilted></_>
    <_>
      <rects>
        <_>
          3 0 12 1 -1.</_>
        <_>
          7 0 4 1 3.</_></rects>
      <tilted>0</tilted></_>
    <_>
      <rects>
        <_>
          3 0 12 2 -1.</_>
        <_>
          7 0 4 2 3.</_></rects>
      <tilted>0</tilted></_>
    <_>
      <rects>
        <_>
          3 2 6 1 -1.</_>
        <_>
          5 2 2 1 3.</_></rects>
      <tilted>0</tilted></_>
    <_>
      <rects>
        <_>
          4 0 1 2 -1.</_>
        <_>
          4 1 1 1 2.</_></rects>
      <tilted>0</tilted></_>
    <_>
      <rects>
        <_>
          4 0 6 1 -1.</_>
        <_>
          6 0 2 1 3.</_></rects>
      <tilted>0</tilted></_>
    <_>
      <rects>
        <_>
          4 0 9 2 -1.</_>
        <_>
          7 0 3 2 3.</_></rects>
      <tilted>0</tilted></_>
    <_>
      <rects>
        <_>
          4 7 8 1 -1.</_>
        <_>
          8 7 4 1 2.</_></rects>
      <tilted>0</tilted></_>
    <_>
      <rects>
        <_>
          4 10 24 12 -1.</_>
        <_>
          4 16 24 6 2.</_></rects>
      <tilted>0</tilted></_>
    <_>
      <rects>
        <_>
          6 6 19 16 -1.</_>
        <_>
          6 14 19 8 2.</_></rects>
      <tilted>0</tilted></_>
    <_>
      <rects>
        <_>
          6 13 18 6 -1.</_>
        <_>
          6 16 18 3 2.</_></rects>
      <tilted>0</tilted></_>
    <_>
      <rects>
        <_>
          7 0 6 2 -1.</_>
        <_>
          9 0 2 2 3.</_></rects>
      <tilted>0</tilted></_>
    <_>
      <rects>
        <_>
          8 0 17 2 -1.</_>
        <_>
          8 1 17 1 2.</_></rects>
      <tilted>0</tilted></_>
    <_>
      <rects>
        <_>
          8 5 20 18 -1.</_>
        <_>
          8 14 20 9 2.</_></rects>
      <tilted>0</tilted></_>
    <_>
      <rects>
        <_>
          9 11 8 6 -1.</_>
        <_>
          9 11 4 3 2.</_>
        <_>
          13 14 4 3 2.</_></rects>
      <tilted>0</tilted></_>
    <_>
      <rects>
        <_>
          10 0 14 21 -1.</_>
        <_>
          10 7 14 7 3.</_></rects>
      <tilted>0</tilted></_>
    <_>
      <rects>
        <_>
          10 4 14 6 -1.</_>
        <_>
          10 6 14 2 3.</_></rects>
      <tilted>0</tilted></_>
    <_>
      <rects>
        <_>
          10 6 16 18 -1.</_>
        <_>
          10 15 16 9 2.</_></rects>
      <tilted>0</tilted></_>
    <_>
      <rects>
        <_>
          11 15 25 9 -1.</_>
        <_>
          11 18 25 3 3.</_></rects>
      <tilted>0</tilted></_>
    <_>
      <rects>
        <_>
          12 3 14 6 -1.</_>
        <_>
          12 5 14 2 3.</_></rects>
      <tilted>0</tilted></_>
    <_>
      <rects>
        <_>
          19 5 8 3 -1.</_>
        <_>
          19 6 8 1 3.</_></rects>
      <tilted>0</tilted></_>
    <_>
      <rects>
        <_>
          23 0 4 2 -1.</_>
        <_>
          25 0 2 2 2.</_></rects>
      <tilted>0</tilted></_>
    <_>
      <rects>
        <_>
          27 0 8 4 -1.</_>
        <_>
          27 2 8 2 2.</_></rects>
      <tilted>0</tilted></_>
    <_>
      <rects>
        <_>
          30 5 6 8 -1.</_>
        <_>
          30 9 6 4 2.</_></rects>
      <tilted>0</tilted></_>
    <_>
      <rects>
        <_>
          32 0 4 1 -1.</_>
        <_>
          34 0 2 1 2.</_></rects>
      <tilted>0</tilted></_>
    <_>
      <rects>
        <_>
          32 9 3 4 -1.</_>
        <_>
          33 9 1 4 3.</_></rects>
      <tilted>0</tilted></_>
    <_>
      <rects>
        <_>
          33 2 1 6 -1.</_>
        <_>
          33 5 1 3 2.</_></rects>
      <tilted>0</tilted></_>
    <_>
      <rects>
        <_>
          33 11 2 5 -1.</_>
        <_>
          34 11 1 5 2.</_></rects>
      <tilted>0</tilted></_>
    <_>
      <rects>
        <_>
          34 0 2 3 -1.</_>
        <_>
          35 0 1 3 2.</_></rects>
      <tilted>0</tilted></_>
    <_>
      <rects>
        <_>
          34 9 2 2 -1.</_>
        <_>
          35 9 1 2 2.</_></rects>
      <tilted>0</tilted></_>
    <_>
      <rects>
        <_>
          34 10 1 2 -1.</_>
        <_>
          34 11 1 1 2.</_></rects>
      <tilted>0</tilted></_>
    <_>
      <rects>
        <_>
          35 1 1 12 -1.</_>
        <_>
          35 7 1 6 2.</_></rects>
      <tilted>0</tilted></_></features></cascade>
</opencv_storage>
